-1.027455 -0.749852 0.471531 -0.086260 0.047207 -0.550844 -0.869781 0.351975 0.343184 0.865149 -0.204447 0.049577 0.638826 -0.923311 -0.898593 0.052595 0.344015 -1.011265 -0.224541 -0.860877 -0.158421 0.403615 0.183308 0.835064 0.726296 0.049410 -0.840722 0.310194 -0.180872 0.402925 0.818112 0.545307 -0.494566 -0.925847 0.464041 -0.332922 0.238878 0.522033 0.981826 -0.247735 -0.541338 0.948952 0.395316 0.502993 0.272407 -0.836041 0.307636 0.757200 -0.475898 -0.133789 0.572017 -0.028732 -0.553771 -0.437247 -0.288978 -0.674965 -0.023885 0.765412 0.830469 -0.861031 0.820774 0.052166 0.040458 -0.392987 1.023445 -0.017280 -0.499577 -0.813718 0.877674 -0.851302 0.000761 -0.196887 -0.475105 0.803665 0.048582 -0.055506 0.847205 -0.886094 0.529598 0.570126 0.611404 -0.778062 -1.037553 0.373581 0.681463 0.285614 0.544255 0.431211 0.962659 0.765476 -0.468552 -0.359237 -0.345923 0.047329 0.171505 0.681922 -0.168950 0.637089 -0.441094 -0.140529 0.095961 0.009774 -0.411273 -0.691611 -0.631698 0.136712 0.563396 -0.924440 0.042499 0.000138 0.914784 0.567341 0.064240 0.744727 0.233144 0.711840 -0.726374 -0.549823 0.445348 -0.688364 



-0.750692 -0.417817 -0.958583 -0.022132 -0.772906 0.458890 0.989355 -0.343339 -0.467357 -0.188538 0.833113 0.352055 -0.649705 0.393576 -0.178522 -0.108004 0.081471 -0.550403 0.255419 0.694844 0.316562 1.012522 0.165890 -0.669263 1.084840 -0.080868 -0.641815 0.094012 -0.358530 0.028886 0.117185 1.069054 -0.700176 -0.428858 -0.230025 0.396642 -0.663127 0.301641 0.417450 0.642110 